Language model created by QuickLM on Sat Dec  4 02:22:16 EST 2021
Copyright (c) 1996-2010 Carnegie Mellon University and Alexander I. Rudnicky

The model is in standard ARPA format, designed by Doug Paul while he was at MITRE.

The code that was used to produce this language model is available in Open Source.
Please visit http://www.speech.cs.cmu.edu/tools/ for more information

The (fixed) discount mass is 0.5. The backoffs are computed using the ratio method.
This model based on a corpus of 14 sentences and 21 words

\data\
ngram 1=21
ngram 2=34
ngram 3=28

\1-grams:
-0.9031 </s> -0.3010
-0.9031 <s> -0.2341
-2.0492 ASSISTANT -0.2430
-1.7482 BROWSER -0.2430
-2.0492 CHATTING -0.2430
-1.5721 CLOSE -0.2771
-2.0492 COMMANDS -0.2430
-2.0492 EXIT -0.2971
-2.0492 FILE -0.2932
-2.0492 GOOGLE -0.2430
-2.0492 LMS -0.2430
-1.7482 MANAGER -0.2430
-1.3502 OPEN -0.2812
-2.0492 OUTLOOK -0.2430
-2.0492 PSCS -0.2430
-2.0492 RETREIVE -0.2971
-2.0492 START -0.2971
-1.7482 TEAM -0.2386
-2.0492 VIEWER -0.2430
-2.0492 VOICE -0.2971
-2.0492 YOUTUBE -0.2430

\2-grams:
-1.4472 <s> BROWSER 0.0000
-0.9700 <s> CLOSE 0.0000
-1.4472 <s> EXIT 0.0000
-1.4472 <s> FILE 0.0000
-0.7482 <s> OPEN 0.0000
-1.4472 <s> RETREIVE 0.0000
-1.4472 <s> START 0.0000
-1.4472 <s> TEAM -0.1761
-0.3010 ASSISTANT </s> -0.3010
-0.3010 BROWSER </s> -0.3010
-0.3010 CHATTING </s> -0.3010
-0.7782 CLOSE BROWSER 0.0000
-0.7782 CLOSE MANAGER 0.0000
-0.7782 CLOSE TEAM -0.1761
-0.3010 COMMANDS </s> -0.3010
-0.3010 EXIT VOICE 0.0000
-0.3010 FILE MANAGER 0.0000
-0.3010 GOOGLE </s> -0.3010
-0.3010 LMS </s> -0.3010
-0.3010 MANAGER </s> -0.3010
-1.0000 OPEN GOOGLE 0.0000
-1.0000 OPEN LMS 0.0000
-1.0000 OPEN OUTLOOK 0.0000
-1.0000 OPEN PSCS 0.0000
-1.0000 OPEN YOUTUBE 0.0000
-0.3010 OUTLOOK </s> -0.3010
-0.3010 PSCS </s> -0.3010
-0.3010 RETREIVE COMMANDS 0.0000
-0.3010 START CHATTING 0.0000
-0.6021 TEAM </s> -0.3010
-0.6021 TEAM VIEWER 0.0000
-0.3010 VIEWER </s> -0.3010
-0.3010 VOICE ASSISTANT 0.0000
-0.3010 YOUTUBE </s> -0.3010

\3-grams:
-0.3010 <s> BROWSER </s>
-0.7782 <s> CLOSE BROWSER
-0.7782 <s> CLOSE MANAGER
-0.7782 <s> CLOSE TEAM
-0.3010 <s> EXIT VOICE
-0.3010 <s> FILE MANAGER
-1.0000 <s> OPEN GOOGLE
-1.0000 <s> OPEN LMS
-1.0000 <s> OPEN OUTLOOK
-1.0000 <s> OPEN PSCS
-1.0000 <s> OPEN YOUTUBE
-0.3010 <s> RETREIVE COMMANDS
-0.3010 <s> START CHATTING
-0.3010 <s> TEAM VIEWER
-0.3010 CLOSE BROWSER </s>
-0.3010 CLOSE MANAGER </s>
-0.3010 CLOSE TEAM </s>
-0.3010 EXIT VOICE ASSISTANT
-0.3010 FILE MANAGER </s>
-0.3010 OPEN GOOGLE </s>
-0.3010 OPEN LMS </s>
-0.3010 OPEN OUTLOOK </s>
-0.3010 OPEN PSCS </s>
-0.3010 OPEN YOUTUBE </s>
-0.3010 RETREIVE COMMANDS </s>
-0.3010 START CHATTING </s>
-0.3010 TEAM VIEWER </s>
-0.3010 VOICE ASSISTANT </s>

\end\
